0.11879292037468545950584797310511930845677852630615,0.14599299463217579875262686073256190866231918334961,-0.054309653799808003948879076006051036529242992401123,-0.036864481844368385266008658618375193327665328979492,0.10400100226588192275922750695826834999024868011475,-0.031938921784959432847994520443535293452441692352295,-0.0083053375703260844120645600696661858819425106048584,0.052451302253097353833766192110488191246986389160156,-0.005584921256434206837671041512294323183596134185791,0.036860283893785782127761052606729208491742610931396,0.00055221287598104405389132232073734485311433672904968,0.028110828618724537780737549041987222153693437576294,-0.11321449226852790814756843928989837877452373504639,0.033516211011073236691881760407341062091290950775146,-0.051172815291279434568583184272938524372875690460205,0.023116226778024207694217651010148983914405107498169,0.028252787083015602764834994786724564619362354278564,-0.19574617711961328492265010936534963548183441162109,-0.020545869020332639676151842422768822871148586273193,-0.0140069992110999786555369794882608402986079454422,0.14518456191678105748898985893902136012911796569824,-0.11848601596547525538483114360133185982704162597656,-0.022890423687858287710161775407868844922631978988647,-0.033521050285369287380365932449421961791813373565674,-0.2980993874145116961926760268397629261016845703125,0.14149376161070797985885860725829843431711196899414,-0.11369922872208783337644177890979335643351078033447,0.14613210160103631829464632119197631254792213439941,0.16829866766174328418514960503671318292617797851562,-0.0048983387760696359830570045801323431078344583511353,-0.10106819744151647466612331527358037419617176055908,0.021363001816774758456762839387010899372398853302002,-0.031276219735838273194872272142674773931503295898438,-0.1101057706417282733291074237058637663722038269043,0.25626681782936400200156867867917753756046295166016,-0.014365510019128320193249059855133964447304606437683,-0.098386567744451439154751426485745469108223915100098,-0.1139719302530574213117020576646609697490930557251,-0.1509407310309025807004701391633716411888599395752,-0.00022281455608319755386584337664146460156189277768135,-0.12733448878820333161066002958250464871525764465332,-0.064030942569436991029796502061799401417374610900879,0.051985458779295216913407529091273318044841289520264,0.11367131456036588810221132916922215372323989868164,-0.046390361150156211866857347558834590017795562744141,-0.080631342534707273195238030893960967659950256347656,0.17392467187043253451506075180077459663152694702148,-0.15680081413784266453070870284136617556214332580566,0.12331549424741512777092822261693072505295276641846,-0.050711815351589785427766088332646177150309085845947,0.32667660028961836848893085516465362161397933959961,0.052324662838004472320552196151766111142933368682861,-0.065189946683025842832925889069883851334452629089355,-0.011091845705941481836642736880094162188470363616943,0.061442887303378185270830158515309449285268783569336,-0.076258292316473533234422177429223665967583656311035,-0.097977199837892769984648566605756059288978576660156,-0.19527415675940001937860301950422581285238265991211,0.065274915480625972374895127359195612370967864990234,0.077688999975773331829742573972907848656177520751953,-0.018727419565354407743340559022726665716618299484253,-0.13095461978726155582997137116763042286038398742676,-0.17158753536203846801200256777519825845956802368164,0.020747200321373816811476586963181034661829471588135,-0.2128693541023896074193544336594641208648681640625,-7.4907743072414749484558282865975797903956845402718e-05,-0.078686811946855478305806741445849183946847915649414,-0.038301953854068426785772771836491301655769348144531,-0.15567834222782309105959086537041002884507179260254,-0.0048577094195812213148211178292967815650627017021179,0.25329068988191333344772715463477652519941329956055,-0.09042842989045052348728859215043485164642333984375,-0.061000394703364137216627938187230029143393039703369,0.025128578938523563057749754534597741439938545227051,0.020445477823458242661036621257153456099331378936768,0.12244680334754208528291741231441847048699855804443,0.0109248829946403825524869901641977776307612657547,-0.11839285326081332161418657733520376496016979217529,-0.14622815975695371837339564535795943811535835266113,0.031350385332707585150924245454007177613675594329834,-0.11037963526622780741082152644594316370785236358643,-0.075225626500667081009154912862868513911962509155273,0.15070165392123574532590168928436469286680221557617,0.11554727272880616073535975374397821724414825439453,-0.13667767111390735634834925349423428997397422790527,-0.15928320524493916332531284751894418150186538696289,0.0023822782201279989883202503619941126089543104171753,0.14880155901644970262154288320743944495916366577148,0.43486007315019509222864257935725618153810501098633,-0.11418442588661625869406179845100268721580505371094,-0.14249401980802203770970493224012898281216621398926,-0.18861439993646136881189079304022016003727912902832,0.1752939191374043303994767484255135059356689453125,-0.075337545905624678233003521654609357938170433044434,-0.047487966887797335158172273850141209550201892852783,0.13776278134878144898678442586970049887895584106445,0.0032171955256114024429558995166189561132341623306274,-0.03156081120942470785717404169190558604896068572998,-0.035205310993197749813710117905429797247052192687988,-0.090688644156108569327479074217990273609757423400879,0.14715125917488305895552969104755902662873268127441,-0.010988069516087854357588859954830695642158389091492,0.063549856860531259150626226528402185067534446716309,-0.060026337001379520552646340547653380781412124633789,-0.032404455846057597656617588199878809973597526550293,-0.077064835951310778350276109449623618274927139282227,0.061824379886325463162588533805319457314908504486084,0.098967638025069040730308245201740646734833717346191,-0.074187383852527155614353659984772093594074249267578,-0.02987737042575320384196757572681235615164041519165,0.088714034392317384081216857794061070308089256286621,0.09189575199247038139738208428752841427922248840332,0.076129031228387711305316543075605295598506927490234,0.064006782847080542775408673605852527543902397155762,-0.065623185317185570020193097207084065303206443786621,0.073646722755600246834717381716473028063774108886719,-0.14839653359269255883390314920688979327678680419922,-0.093697764607995517871508184271078789606690406799316,0.008008924368696126311339966719060612376779317855835,0.13762277678424872373597054320271126925945281982422,0.15082317875775058668708084042009431868791580200195,-0.15811216065277955422629929671529680490493774414062,0.052588663225095734488068188738907338120043277740479,0.048175618696335069379710347448053653351962566375732,-0.45855921469654803424020883539924398064613342285156,-0.16456132111685753405261323223385261371731758117676,0.0065349558757969491290529262528252729680389165878296,-0.12519658419028895091074105039297137409448623657227,0.14712502693094958727826337963051628321409225463867,0.080040162233525016799440265913290204480290412902832,-0.14841386280131044217434066467831144109368324279785,-0.071342048403304075820940965968475211411714553833008,-0.033536700898889264255142705906109767965972423553467,-0.12985773061841460185306118546577636152505874633789,0.22278938413371582316635510778723983094096183776855,0.20213941513032876451383401672501349821686744689941,-0.11853339059590017878775825010961852967739105224609,-0.13883300263819006725718452344153774902224540710449,-0.17115009937755154556526804299210198223590850830078,-0.14771556489312562265858730370382545515894889831543,-0.1976109037078842278756241057635634206235408782959,0.068480186569599879597980418566294247284531593322754,0.12010313859608756636987436650088056921958923339844,0.061130628225722058455282592603907687589526176452637,0.67268814326758274990680774862994439899921417236328,0.059897727559259685004011686260128044523298740386963,0.032489908563738442714985410475492244586348533630371,0.073451268339881581326267223630566149950027465820312,0.10775236023335806045952978138302569277584552764893,0.13932394802883071860399866181978723034262657165527,-0.097284258457900049665845187973900465294718742370605,-0.059137434880506066503524920108247897587716579437256,0.058464630231078451583215382925118319690227508544922,0.0093955810998116121718348736635562090668827295303345,0.33322142643570551445719729599659331142902374267578,-0.029195763153288742386415322016546269878745079040527,0.064830839527834818736273803096992196515202522277832,-0.2300783988022654935612365534325363114476203918457,-0.078524440649064247699229213139915373176336288452148,0.066874073525238039716889204555627657100558280944824,-0.21610043383038035624821304736542515456676483154297,2.9494740247573063562924744474003091454505920410156,-0.012654141523045583234141631123748084064573049545288,-0.50943977262736417355171170129324309527873992919922,0.24925107060111090229170827115012798458337783813477,0.77839767201491461001694460719591006636619567871094,4.0348949523118928794929161085747182369232177734375,0.054408752031394766457417233596061123535037040710449,0.49606463653322996343320028245216235518455505371094,-2.1569836650068734407170722988666966557502746582031,-0.3330713339133890005250293597782729193568229675293,3.1924767547718677640489204350160434842109680175781,-0.11420389979076915609734754752935259602963924407959,3.6762423477143419958679260162170976400375366210938,-1.9759488115310752665010340933804400265216827392578,0.56847505297122302714285524416482076048851013183594,1.1553762970153658162786314278491772711277008056641,0.0024084914707736765696055591945423657307401299476624,0.018294056051837450510566540629042719956487417221069,1.1038398303229846053596929777995683252811431884766,0.2575092073878860188251849194784881547093391418457,-1.4160627929897333654452040718751959502696990966797,0.23109213818683585484059506143239559605717658996582,-2.0023068309398017738942598953144624829292297363281,0.33834854237936040632916956383269280195236206054688,-4.7567279385932961233152127533685415983200073242188,0.75367245946143346380097227665828540921211242675781,0.18321706282799471443567540518415626138448715209961,0.36541190008907187269926453154766932129859924316406,0.26185257545253515232275276503060013055801391601562,-0.18220275078585437822376036365312756970524787902832,0.065447624991834318919359247956890612840652465820312,-0.079889118427866515070867592385184252634644508361816,0.1512365529988379531101116981517407111823558807373,0.090000160485086411199517897330224514007568359375,-0.14872942318586415688663748824183130636811256408691,0.17284317598485168798738698114902945235371589660645,-0.12546205288360395835312033341324422508478164672852,-0.031525795176763411753473320686680381186306476593018,0.035148701999193017464495625290510361082851886749268,0.0021881930753321400008604147302548881270922720432281,-0.1105590271339243896298043523529486265033483505249,0.16973522965490858704917798149836016818881034851074,0.14884386835096674595035892707528546452522277832031,-0.011370546535195215007152391706313210306689143180847,0.14747980784765499229216345611348515376448631286621,-0.1101103387444243852932856952975271269679069519043,-0.07061250074208270943731946545085520483553409576416,0.05014883572045606557887609255885763559490442276001,-0.20924985698409981349499275893322192132472991943359,-0.042960046689090022886681197178404545411467552185059,-0.068497955863307577462073538754339097067713737487793,-0.135137386701838835278977057896554470062255859375,0.11042347899016022316764917832188075408339500427246,-0.17279877159902318206619042939564678817987442016602,0.081415148635019932155110211624560179188847541809082,-0.024846808896360091795108004930625611450523138046265,-0.0039176993712226803809328679051304789027199149131775,0.041333067441155835197719170537311583757400512695312,0.017142414615783804071602602903112710919231176376343,-0.00988338088630551052371497888771045836620032787323,0.18309203585316044526898338062892435118556022644043,-0.057991094793988139100004985948544344864785671234131,0.13000922086984667558340333926025778055191040039062,-0.17202712480711118692155991993786301463842391967773,0.018747646956556868191867692985397297888994216918945,-0.05994861703319724621774611250657471828162670135498,0.10618104076224745002665628135218867100775241851807,0.16519841003957391745160521168145351111888885498047,0.047476309026367166654658547031431226059794425964355,0.012073437278627653299056809999001416144892573356628,0.023347511616060481753898159240634413436055183410645,-0.023811325708307053139467512892224476672708988189697,0.48491248554758886735172040971519891172647476196289,-0.27783806620922329999601174677081871777772903442383,0.10215339237019260831829114977153949439525604248047,0.30688064327928604724249339597008656710386276245117,-0.035339261161866732108283173374729813076555728912354,0.0071728517225020122644041364878830790985375642776489,-0.092565867546807845123169045109534636139869689941406,-0.066401989657097371111404982002568431198596954345703,-0.06452233284233585552946976804378209635615348815918,0.15135892605907766417239201928168768063187599182129,0.35093696650925254587605195411015301942825317382812,-0.16990070383713107293743860282120294868946075439453,0.31879045339727601904300513524503912776708602905273,0.17982908678841208471865797946520615369081497192383,-0.08238060485366169305443406756239710375666618347168,-0.052019021123688592711520328748520114459097385406494,-0.066892393061025512412953730745357461273670196533203,-0.20987057430730235441096453996578929945826530456543,0.13534904724870733261354871501680463552474975585938,0.15331374318743618001548156826174817979335784912109,0.052169114984645374721861088573859888128936290740967,-0.02203263845465757569952458538864448200911283493042,-0.041505389126296525492687550240589189343154430389404,0.034545466185541086334698235305040725506842136383057,-0.074376958749380786550808863921702140942215919494629,0.11231186764466939698170477868188754655420780181885,0.080177663012509822748619114918255945667624473571777,0.11591973588953291551817414983815979212522506713867,0.28424500122434298576834521554701495915651321411133,0.12731820079040231941114313940488500520586967468262,0.21561007062790862875978348256467143073678016662598,0.10604048525904986866041923576631234027445316314697,0.0032735157609075781100227420239434650284238159656525,-0.052589834717083110138258206234240788035094738006592,0.052681127423389609298887137356359744444489479064941,0.18419191937794071600720258174987975507974624633789,0.027043541428397172704523043762492306996136903762817,-1.3836855297301993150682619670988060534000396728516,-1.0532168194411186679104730501421727240085601806641,1.57135299015030938107884139753878116607666015625,3.5981430538695220455736034637084230780601501464844,3.9735506627624390674213827878702431917190551757812,-2.0226059633801578563350176409585401415824890136719,-0.094377299851157739341012131717434385791420936584473,-0.10056655384502448391526030491149867884814739227295,0.25760089558231613615646438120165839791297912597656,-1.1621922836506621834473662602249532938003540039062,4.5974372370444518409726697427686303853988647460938,-2.1101354394631690603034712694352492690086364746094,0.65828600926831404294148342160042375326156616210938,-3.9004621023053065442809383966960012912750244140625,-0.33676970307911158197811118952813558280467987060547,0.86883348802002702271352063689846545457839965820312,-0.31680494320281948894546530937077477574348449707031,-6.0637795815440842517318742466159164905548095703125,5.0694883528178342757541940954979509115219116210938,1.1562970024210372788076028882642276585102081298828,1.1189221548685364115982565635931678116321563720703,-0.095981426954446349975036412160989129915833473205566,-0.060335226864864796580967265526851406320929527282715,0.21356664220543469800972502525837626308202743530273,0.44317265058033949998161915573291480541229248046875,-0.012675197579465368943885117403169715544208884239197,0.8261038196275887202091325889341533184051513671875,-3.257546269635980706880218349397182464599609375,1.4656231542422537561520812232629396021366119384766,1.5254328982348246412925618642475455999374389648438,1.3679808989249671036247946176445111632347106933594,0.81399535099479225497276502210297621786594390869141,-1.1265483729804068868673994074924848973751068115234