-0.87860545835413317306006319995503872632980346679688,-0.071226799391560818852653369503968860954046249389648,0.28491971045846165022652485276921652257442474365234,-0.16508434920790318600758439515630016103386878967285,0.20086416314864646848192819561518263071775436401367,-2.3100382007010837881466613907832652330398559570312,0.29622788129105170895627452409826219081878662109375,0.19817846990279947005930694103881251066923141479492,0.1092037247886148559894436971262621227651834487915,0.061217659076256564221196754260745365172624588012695,-0.10571850504005814164187881942780222743749618530273,0.062764220583160890143403776164632290601730346679688,0.0025648724564615913400211777428694404079578816890717,0.055601722361909293457227221324501442722976207733154,-0.011544447750107498032456909697884839260950684547424,1.2345528672450687412975867118802852928638458251953,-0.56098622231648442859608394428505562245845794677734,0.075015349869824443640453637272003106772899627685547,0.17736734283196040062868803488527191802859306335449,-0.1420832194063514630766320578914019279181957244873,-0.64309635260030073578008114054682664573192596435547,-0.28991527415508294707180425575643312186002731323242,0.2331688203229529132709529903877410106360912322998,0.71014627496616622437386467936448752880096435546875,0.13247495684172228003205873392289504408836364746094,1.4479367787787340571270533473580144345760345458984,0.055365250095946803854385365184498368762433528900146,0.097885054296926191086392066154076019302010536193848,0.29706869072105651641280132935207802802324295043945,-0.25182635360720323491889871547755319625139236450195,-1.0573919433172305204493568453472107648849487304688,-0.021752674749536834997165613003744510933756828308105,-0.057332232594339532782967694402032066136598587036133,0.099480015541350719221469489639275707304477691650391,0.10456381175307404018948176371850422583520412445068,-2.5264475374368484672515933198155835270881652832031,0.83531375152613862589134896552423015236854553222656,0.30297295090435716335974802859709598124027252197266,-0.63455451700673548565134751697769388556480407714844,0.038467751882917691763630330115120159462094306945801,2.1798442525766632549277801444986835122108459472656,-0.18095173074511089472693470270314719527959823608398,0.08325479832780434408245895383515744470059871673584,-0.18740124956153436652783739191363565623760223388672,0.14970265634265922383150382302119396626949310302734,1.4189374307144928533119809799245558679103851318359,0.88588508256707088062142929629771970212459564208984,0.041173818355436743454678349962705397047102451324463,-0.79772439879422085695637179014738649129867553710938,-0.15548026087362232239286186086246743798255920410156,0.068388262299157648316239033192687202244997024536133,-0.26369695984573743308132520724029745906591415405273,-0.05554754239943118787614650955219985917210578918457,0.76641747189981423993287990015232935547828674316406,0.24427129249846135650159340002574026584625244140625,-0.27657719457782220517927385117218364030122756958008,2.7570552621390720382521521969465538859367370605469,-0.06949696747219448467181024398087174631655216217041,0.14590920877911661701631373944110237061977386474609,-0.3144977999953503799979159794020233675837516784668,0.10083546212033042688283046572905732318758964538574,-0.2103234441486758754535912885330617427825927734375,0.02347507123578328191992881102123646996915340423584,0.43915170522884822146281180721416603773832321166992,0.054927812664627220784474559422960737720131874084473,-0.46366556328488761629103009909158572554588317871094,0.073376783869359793466280450502381427213549613952637,0.050318397105754537890209832085020025260746479034424,1.0912762665083437507718144843238405883312225341797,0.041902465125213901597778232144264620728790760040283,0.52931474160546565510543359778239391744136810302734,0.044838995449053453690169135370524600148200988769531,-0.077063490175093132816819263553043128922581672668457,0.50839233663872929191995808650972321629524230957031,0.027801515169483058398380848075248650275170803070068,-2.7584737485625150377188674610806629061698913574219,2.1895031387859051896782602852908894419670104980469,0.31984110129629239605009161095949821174144744873047,-0.5878472865207555742017575539648532867431640625,-0.10263580014114501159916414962935959920287132263184,0.67200658895561382610850387209211476147174835205078,-0.11911186596485069666417899725274764932692050933838,0.15205525254549737135256748388201231136918067932129,-1.1529387388383769419419877522159367799758911132812,0.18454953917176525335364090096845757216215133666992,2.5381333418376046395792400289792567491531372070312,-1.0422208004272011105939554909127764403820037841797,-0.10192769878189261723022696060070302337408065795898,-0.11556620518783121409622793862581602297723293304443,-0.31550060026204101992775008511671330779790878295898,0.020448131171651184184723248904447245877236127853394,-0.10846475576530456574886329690343700349330902099609,0.22451741839738034722806503395986510440707206726074,-0.075083011954765230266950482018728507682681083679199,0.044339521929519960796728383911613491363823413848877,-1.2836943626046981581367845137719996273517608642578,-0.94780709467786294908364652656018733978271484375,0.29840831800156919495492502392153255641460418701172,0.16813677389952549900975498076149960979819297790527,0.065404868148122144444478465175052406266331672668457,0.23442856225392275093533100971399107947945594787598,0.036975643066455135543613153004116611555218696594238,0.30948011134219038931192358177213463932275772094727,0.28898305222395703761861796010634861886501312255859,0.20952030912375307902806298443465493619441986083984,2.5568262479622756444541664677672088146209716796875,2.6907705268035981838181669445475563406944274902344,-0.013172647975805419975903198803734994726255536079407,-0.49755764535521357361247396511316765099763870239258,-0.038685802556303987287389389848613063804805278778076,-0.043457657403549794505881465056518209166824817657471,-0.0527728968763757841364814282769657438620924949646,0.37517436517654317862380253245646599680185317993164,3.2398006200307327695497860986506566405296325683594,0.18474673544887310061568541641463525593280792236328,0.44259128080992404807858520143781788647174835205078,-1.7546408617939099894300625237519852817058563232422,0.23660776347163417487884373713313834741711616516113,-0.19054603534214903381993622133450116962194442749023,-0.021959893286540223267255811379072838462889194488525,0.54487746330961139840098894637776538729667663574219,-0.10569807696029492882772160555759910494089126586914,0.21468368889096495211177284545556176453828811645508,-1.2800365826708937078137751086615025997161865234375,0.099672291760466907861726326700591016560792922973633,1.9392863794352641626517197437351569533348083496094,1.9779524267172599039099623041693121194839477539062,0.22993511751217471372754630465351510792970657348633,4.2005500773161914551678819407243281602859497070312,-0.016879992658957652246209946156341175083070993423462,-2.2401509872588620808642190240789204835891723632812,-0.029054297491900787225871383157027594279497861862183,0.051393511471806208046331221339642070233821868896484,-2.7885386244341132666590965527575463056564331054688,0.055845185673318420427335695421788841485977172851562,1.2153582972920562443874814562150277197360992431641,2.3492148024009646967158460029168054461479187011719,0.1452179898635279353680260783221456222236156463623,-0.27055721960877160414682407463260460644960403442383,-0.018730800733521853207452778633523848839104175567627,2.8976345004566836927040185400983318686485290527344,0.053303503356485100461714665698309545405209064483643,0.23290531439137557301322090097528416663408279418945,2.132001283938251390281948260962963104248046875,0.12328543279168194257700008620304288342595100402832,0.39550145971610423112352350472065154463052749633789,-4.0802468291036717573661007918417453765869140625,-0.012202567984005858667262423011834471253678202629089,-4.6972174006627138709291102713905274868011474609375,-0.13533522642311990313856995271635241806507110595703,1.1277393627431593348120486552943475544452667236328,-0.29943846056920075948681869704159907996654510498047,0.42711445835667721793171835997782181948423385620117,-1.1545014426545450181293972491403110325336456298828,0.37962621040589850096580448735039681196212768554688,-2.0665651549767649619582243758486583828926086425781,-3.6280234988912685167861127411015331745147705078125,0.26434284322132300948382521710300352424383163452148,-1.4585791759693591540525403615902177989482879638672,-0.29929738447720888316894161107484251260757446289062,0.92254785737436473258554769927286542952060699462891,-0.15690740656505944294885068757139379158616065979004,0.030655883532640790939405306403386930469423532485962,0.18174615865132981440410731011070311069488525390625,-0.19353288586258393655370468877663370221853256225586,-0.76199172055109731793720584391849115490913391113281,1.1917425014618898693186110904207453131675720214844,-0.12763702731086459807308131075842538848519325256348,-0.34025327261401555611897151720768306404352188110352,0.18731694533746556796671711708768270909786224365234,-4.0112085460321278418405199772678315639495849609375,-5.0227027449183188068104755075182765722274780273438,7.5831955773087260652687291440088301897048950195312,0.20994225285333059649595099926955299451947212219238,-0.11750756217429086936121507278585340827703475952148,0.066124594238078510111122909620462451130151748657227,2.8050794373574747808675056148786097764968872070312,1.0312103167101056566679062598268501460552215576172,-2.0150726147917343844540027930634096264839172363281,-3.775378487323820309029542841017246246337890625,3.82740008382209140336271957494318485260009765625,-2.0332260582415275784740060771582648158073425292969,2.752480330929241603143964312039315700531005859375,1.0847436304705924126068339319317601621150970458984,-1.7740849395571214319744512977194972336292266845703,3.7243508661213069466100478166481480002403259277344,4.4722095931031882187767223513219505548477172851562,-1.7313564759686195237975425698095932602882385253906,-4.727798126714095161560180713422596454620361328125,-5.268075484058950763710527098737657070159912109375,2.3919360939682601241429438232444226741790771484375,2.4262355889259281660486067266901955008506774902344,0.94370912777796411852193614322459325194358825683594,-2.1562931569917487273357892263447865843772888183594,-8.3852630249379149773858443950302898883819580078125,4.4380255057057924616970012721139937639236450195312,3.7579638033317332990179693297250196337699890136719,-0.10597825372438370028493892505139228887856006622314,-0.011391917127828337860662166747260926058515906333923,-0.080313957339990027506360092957038432359695434570312,-2.7759354326446414873430512670893222093582153320312,-1.0977108614727457691628842439968138933181762695312,2.1427661282801442332868191442685201764106750488281